#include <math.h> 
 #include <string.h> 
#include "./include/k2c_include.h" 
#include "./include/k2c_tensor_include.h" 

 


void MNIST_NeuralNet(k2c_tensor* flatten_input_input, k2c_tensor* dense_1_output) { 

float flatten_output_array[784] = {0}; 
k2c_tensor flatten_output = {&flatten_output_array[0],1,784,{784,  1,  1,  1,  1}}; 
float dense_output_array[3] = {0}; 
k2c_tensor dense_output = {&dense_output_array[0],1,3,{3,1,1,1,1}}; 
float dense_kernel_array[2352] = {
-7.24878758e-02f,+1.83170587e-02f,+3.35341468e-02f,-6.92249388e-02f,-6.91547245e-02f,
-7.09123239e-02f,+2.94795409e-02f,-5.74889332e-02f,+1.80894211e-02f,+5.16209006e-03f,
+2.26886943e-02f,+5.11866733e-02f,-7.15001673e-02f,+7.26856813e-02f,+6.31902590e-02f,
+2.00084820e-02f,-1.28967464e-02f,+8.36008117e-02f,+5.58669344e-02f,+2.66612694e-02f,
+5.97742423e-02f,+7.40869120e-02f,+5.59741035e-02f,+4.78913411e-02f,+3.65203619e-03f,
+3.98984924e-02f,-6.87742010e-02f,-6.20659925e-02f,+4.97635826e-02f,+1.73236504e-02f,
+3.65429148e-02f,-6.21916689e-02f,+2.11987868e-02f,-3.32207568e-02f,-6.64595068e-02f,
+6.56486377e-02f,-1.47624001e-01f,+2.43185505e-01f,-1.26576960e-01f,-1.97489649e-01f,
+1.33499697e-01f,-4.55936939e-02f,-2.69972757e-02f,+1.55811468e-02f,+1.15316235e-01f,
-6.49159849e-02f,+1.11546010e-01f,+1.83263123e-01f,+4.81338426e-02f,+4.87547368e-03f,
+4.11986485e-02f,+8.48388895e-02f,+4.61485311e-02f,+6.75058588e-02f,-2.40966156e-02f,
+1.00918189e-02f,-1.05951205e-02f,+5.75659797e-02f,+1.15396529e-02f,-2.39881873e-03f,
+4.05501202e-02f,+2.31480300e-02f,+5.79983220e-02f,+2.78296918e-02f,-3.11219394e-02f,
-7.27182627e-02f,-3.39917541e-02f,+3.74248698e-02f,+5.42182848e-02f,-8.69869217e-02f,
+5.54348454e-02f,-7.03339726e-02f,+5.36677316e-02f,-4.40223292e-02f,+3.33797038e-02f,
+7.90732726e-02f,-2.90056318e-02f,+3.77271250e-02f,-7.36670420e-02f,-8.13308284e-02f,
-5.30582443e-02f,-5.07994443e-02f,+8.03969800e-04f,-1.12847239e-03f,-6.99622929e-02f,
+1.65364370e-02f,-8.05325210e-02f,+1.70643702e-02f,-6.49515688e-02f,-6.19372800e-02f,
+4.27375361e-02f,+1.28031522e-02f,+1.26926303e-02f,+1.64846033e-02f,+7.52009451e-04f,
+8.41544941e-02f,+9.99414399e-02f,+8.71471539e-02f,+6.45867810e-02f,-2.63270717e-02f,
+1.35986775e-01f,-4.72370908e-02f,-4.34156179e-01f,+2.73353547e-01f,-4.12385650e-02f,
-3.67832273e-01f,+3.86160672e-01f,-1.60645470e-01f,-2.08017766e-01f,+3.32849711e-01f,
-1.09637059e-01f,+2.17030242e-01f,+4.08169001e-01f,-1.05708912e-01f,+3.37660432e-01f,
+4.99616832e-01f,-4.41434868e-02f,+4.88342881e-01f,+3.92223895e-01f,-1.40370876e-01f,
+3.98661643e-01f,+4.71664429e-01f,-1.65325508e-01f,+2.63816535e-01f,+6.15842164e-01f,
-1.74890310e-01f,+7.66203329e-02f,+1.58354938e-01f,+3.54364783e-01f,-1.73810750e-01f,
+2.57361680e-01f,+3.43404233e-01f,-2.43796378e-01f,+5.37367165e-01f,+1.14058748e-01f,
+1.24209814e-01f,+3.21573228e-01f,-6.13757744e-02f,+4.43438590e-01f,+3.72956425e-01f,
-9.25969612e-03f,+3.62164497e-01f,+4.43427026e-01f,-4.24139239e-02f,+2.28991091e-01f,
+3.45950097e-01f,-1.22856230e-01f,-8.33872259e-02f,+1.68528914e-01f,-5.02411425e-02f,
-3.02720398e-01f,+2.76137859e-01f,+1.71843322e-03f,-2.63250738e-01f,+1.42333582e-01f,
-6.79494143e-02f,+4.88645807e-02f,-6.63740933e-02f,-2.49601901e-03f,-6.60364479e-02f,
+4.02989164e-02f,+8.58421549e-02f,+6.37285784e-02f,-1.53389126e-02f,+7.32701048e-02f,
+7.44450092e-03f,+4.71344963e-02f,+2.85746455e-02f,+8.40965435e-02f,+7.68399611e-02f,
-7.92191029e-02f,+1.02328584e-02f,-1.56314597e-02f,-1.32041350e-02f,+7.42779449e-02f,
+3.83240320e-02f,-2.10811868e-02f,+5.74399456e-02f,+3.71774510e-02f,-2.86602713e-02f,
-4.21229266e-02f,+2.90795892e-01f,-7.18205869e-02f,-1.26766056e-01f,+1.90896362e-01f,
-2.33065173e-01f,+7.63869584e-02f,+3.98400813e-01f,-1.15271449e-01f,+1.14223696e-01f,
+5.06387770e-01f,-1.68116957e-01f,+4.19619858e-01f,+6.05526328e-01f,-1.54182330e-01f,
+5.50556183e-01f,+6.65859640e-01f,-2.19265088e-01f,+6.54417992e-01f,+8.14482152e-01f,
-5.28370321e-01f,+5.80215573e-01f,+9.34285283e-01f,-4.05082673e-01f,+5.95620036e-01f,
+1.00737298e+00f,-4.22202617e-01f,+6.88822865e-01f,+9.26410675e-01f,-5.48798680e-01f,
+5.77465713e-01f,+8.75047445e-01f,-3.23714435e-01f,+4.28935170e-01f,+6.88587606e-01f,
+5.45577444e-02f,+6.08160019e-01f,+7.45606720e-01f,+6.48170635e-02f,+6.20810449e-01f,
+9.07572210e-01f,-3.28439586e-02f,+7.96164691e-01f,+8.81391585e-01f,-2.68135071e-01f,
+9.49707866e-01f,+8.13492000e-01f,-3.37709367e-01f,+9.21042621e-01f,+7.19160438e-01f,
-5.27027071e-01f,+6.12164557e-01f,+6.80056930e-01f,-6.42626107e-01f,+4.48678851e-01f,
+6.07203603e-01f,-4.39939678e-01f,+6.83156326e-02f,+3.88559252e-01f,-4.44816202e-01f,
-1.55866668e-01f,+3.99201363e-01f,-2.41187468e-01f,-1.30677521e-01f,+2.80987442e-01f,
-2.43168930e-03f,-7.07723275e-02f,-5.45657240e-02f,+8.05007294e-02f,+7.73380175e-02f,
-5.50020561e-02f,+5.67011610e-02f,-4.08532843e-02f,+1.52264759e-02f,-1.42167434e-02f,
+3.83098200e-02f,+5.47493920e-02f,-7.69952387e-02f,-1.20643042e-01f,+1.05446726e-01f,
-1.18682951e-01f,+3.25102955e-02f,+1.48171708e-01f,-2.27974385e-01f,+8.36281478e-02f,
+1.97377652e-01f,-5.97393233e-03f,+1.14702456e-01f,+3.89499124e-03f,+8.55753943e-02f,
+2.65828609e-01f,+1.74951285e-01f,+1.29250079e-01f,+3.18291485e-01f,+4.47989404e-01f,
-7.26743788e-02f,+5.33551574e-01f,+6.13101482e-01f,-6.18448891e-02f,+6.53770983e-01f,
+8.08782756e-01f,+6.18990092e-03f,+6.90187871e-01f,+8.59317720e-01f,-1.80362344e-01f,
+5.62798262e-01f,+8.06739271e-01f,+1.53528273e-01f,+5.54663777e-01f,+9.26640213e-01f,
+3.61940742e-01f,+3.95393997e-01f,+9.68512595e-01f,+1.78221151e-01f,+5.47072053e-01f,
+6.72989309e-01f,+7.83607438e-02f,+5.27538061e-01f,+6.79955184e-01f,+8.54027346e-02f,
+5.55589378e-01f,+7.55674839e-01f,-1.17467612e-01f,+5.02773762e-01f,+7.02037692e-01f,
-1.55793145e-01f,+7.55092382e-01f,+6.67854249e-01f,-2.92239726e-01f,+6.84815645e-01f,
+3.99127305e-01f,-3.75913203e-01f,+7.71911144e-01f,+3.31073076e-01f,-3.12033266e-01f,
+8.54275167e-01f,+1.67823553e-01f,-3.23811680e-01f,+8.43945324e-01f,+1.33028096e-02f,
-1.54785618e-01f,+5.39075971e-01f,+1.18723392e-01f,-1.46082282e-01f,+4.40223694e-01f,
+2.66536742e-01f,-3.18006098e-01f,+7.30400383e-02f,+1.84776887e-01f,-2.91404068e-01f,
+2.03771770e-01f,-1.43731413e-02f,-1.53246433e-01f,-5.99162541e-02f,+7.66612589e-03f,
+5.55834100e-02f,+8.98595154e-03f,+2.47249156e-02f,+3.98545042e-02f,-8.81929398e-02f,
-1.77028805e-01f,+2.36379579e-01f,-2.07321107e-01f,-2.91292518e-02f,+2.15328112e-01f,
-7.34278411e-02f,+5.74851856e-02f,+7.42923915e-02f,+1.96646377e-01f,-2.67451733e-01f,
+8.57443884e-02f,+1.46024302e-01f,-4.47742939e-02f,+1.95097953e-01f,+1.09091662e-01f,
+2.65478611e-01f,+3.99471551e-01f,+2.28525117e-01f,+2.94483215e-01f,+4.11903799e-01f,
+2.74504095e-01f,+5.66951334e-01f,+5.29756188e-01f,+1.96865186e-01f,+6.69600368e-01f,
+6.20869219e-01f,+1.53829202e-01f,+6.47059739e-01f,+4.77347195e-01f,+7.69468676e-03f,
+6.47890151e-01f,+7.41240680e-01f,-5.41074723e-02f,+6.27014339e-01f,+4.79696393e-01f,
-5.63178994e-02f,+6.69340968e-01f,+5.15851736e-01f,+1.25831306e-01f,+5.93127549e-01f,
+4.85044301e-01f,-2.02925894e-02f,+5.60023904e-01f,+3.69081080e-01f,+1.08768843e-01f,
+3.46947014e-01f,+3.21783423e-01f,+6.33749589e-02f,+2.20839038e-01f,+2.48185083e-01f,
+9.85988081e-02f,+1.24221273e-01f,+3.19785625e-01f,-5.30430637e-02f,-1.00913405e-01f,
+2.01403260e-01f,-8.11753049e-02f,-1.74568355e-01f,+9.31995213e-02f,-1.69517189e-01f,
-3.22119653e-01f,+1.00795608e-02f,+5.48457205e-02f,-4.94546086e-01f,+2.13552751e-02f,
+3.38447511e-01f,-3.80399883e-01f,+3.95566821e-02f,+4.31560874e-01f,-3.06392610e-01f,
+1.91505864e-01f,+3.08395833e-01f,-1.41927913e-01f,+1.19969040e-01f,-2.26332605e-01f,
+2.08083883e-01f,+2.61549383e-01f,+6.24883436e-02f,+1.26005977e-01f,-2.05047488e-01f,
-2.49829665e-02f,-2.74186954e-02f,+2.27890536e-02f,-1.69204995e-02f,+4.92371991e-02f,
+2.89370790e-02f,+8.68792739e-03f,+1.70792431e-01f,+1.42618433e-01f,-1.64603233e-01f,
-1.40280068e-01f,+3.62025708e-01f,+8.20289105e-02f,-6.47501573e-02f,+2.04635128e-01f,
+5.64385168e-02f,-1.37993142e-01f,+5.48054278e-01f,+8.09677988e-02f,-2.12365258e-02f,
+4.56399322e-01f,+1.25584945e-01f,+1.67149276e-01f,+3.90630007e-01f,+2.68538088e-01f,
+4.10644978e-01f,+4.60401982e-01f,+2.79005468e-01f,+3.51202935e-01f,+4.98682708e-01f,
+2.82889634e-01f,+4.57554430e-01f,+3.49502534e-01f,+6.89065307e-02f,+4.25559610e-01f,
+4.80431795e-01f,+1.00196050e-02f,+2.91731894e-01f,+4.38261867e-01f,-6.24764934e-02f,
+4.43787992e-01f,+3.06211233e-01f,+1.99088324e-02f,+3.75342667e-01f,+2.59199977e-01f,
-3.32487859e-02f,+4.10758883e-01f,+1.95102572e-01f,+1.07943825e-01f,+3.73592347e-01f,
+8.44848529e-02f,+9.32406634e-02f,+4.06662107e-01f,-3.80952954e-02f,+9.67724994e-03f,
+1.45274132e-01f,+6.63119322e-03f,+7.51629323e-02f,+1.20500572e-01f,+2.38346867e-02f,
-1.25556160e-02f,-1.14262626e-02f,-2.99479440e-02f,-1.17928892e-01f,-9.34597477e-02f,
+1.16872102e-01f,-1.59477945e-02f,-2.15810135e-01f,+9.46688130e-02f,+3.39424402e-01f,
-2.55733401e-01f,+1.30790055e-01f,+5.68920255e-01f,-1.54917836e-01f,+4.05746043e-01f,
+4.76710230e-01f,+1.88384444e-01f,+6.51939690e-01f,+1.86766565e-01f,+3.21047544e-01f,
+4.89888638e-01f,+1.05464749e-01f,-1.63916759e-02f,-8.62566531e-02f,+6.06006309e-02f,
-3.19693163e-02f,-2.40887329e-02f,+2.73781512e-02f,+8.85147825e-02f,+1.51759401e-01f,
+8.86345166e-04f,+1.64610315e-02f,+9.66231078e-02f,-4.04699007e-03f,+1.10837847e-01f,
+3.98998946e-01f,+1.97310403e-01f,+2.49596555e-02f,+3.36835563e-01f,+3.04644033e-02f,
-3.66247557e-02f,+2.75661111e-01f,-8.05146061e-03f,+2.02593859e-02f,+3.65844101e-01f,
+6.95378706e-02f,+2.10739255e-01f,+1.99926630e-01f,+9.20583680e-02f,+1.76711410e-01f,
+4.48085755e-01f,+1.90923452e-01f,+1.23824060e-01f,+4.40381497e-01f,+1.67602360e-01f,
+1.62577108e-01f,+3.45232576e-01f,+6.59581497e-02f,+1.89009383e-01f,+3.45793843e-01f,
-8.15538839e-02f,+1.24218442e-01f,+1.31428778e-01f,-1.38780147e-01f,+2.13715464e-01f,
+2.30990916e-01f,-2.77715251e-02f,+1.66225553e-01f,+3.35048437e-01f,-7.58373216e-02f,
+2.43608147e-01f,+3.34586412e-01f,-8.65701810e-02f,+1.89062014e-01f,+3.40577841e-01f,
-2.34752875e-02f,+1.22229792e-01f,+2.51438558e-01f,-6.64921179e-02f,+1.71458021e-01f,
+2.14030549e-01f,-2.84594111e-03f,+9.92693081e-02f,+8.52241218e-02f,-1.69562176e-02f,
+4.01618257e-02f,+9.48588774e-02f,+4.71192077e-02f,+6.91306442e-02f,-4.32547694e-03f,
+1.69700995e-01f,+7.49965906e-02f,+4.79546413e-02f,+5.73972523e-01f,+1.20412655e-01f,
+1.75733075e-01f,+1.00385356e+00f,+4.39132094e-01f,+6.25138819e-01f,+8.50244761e-01f,
+5.68504333e-01f,+7.42621481e-01f,+5.34548759e-01f,+1.91907331e-01f,+3.91426295e-01f,
+1.18576176e-01f,+7.27150366e-02f,-1.19950823e-01f,-3.84889729e-02f,+2.24215481e-02f,
+8.68626405e-03f,+3.13580394e-01f,+1.23003431e-01f,+2.08454639e-01f,-1.06036976e-01f,
-1.15808472e-02f,+2.02527076e-01f,-1.08915485e-01f,-7.68015385e-02f,+4.05693144e-01f,
+1.79346614e-02f,+8.71744007e-02f,+3.00956786e-01f,-1.40276935e-03f,+3.48009057e-02f,
+1.94254786e-01f,-3.96935977e-02f,+1.09705761e-01f,+2.17804044e-01f,+1.54597862e-02f,
+7.68009722e-02f,+1.13736920e-01f,+2.97563896e-02f,+4.57852557e-02f,+1.81739122e-01f,
+7.59751201e-02f,-1.13839777e-02f,+1.13858342e-01f,+3.93247604e-03f,-4.44522463e-02f,
+1.41307518e-01f,-1.24284169e-02f,+5.17394058e-02f,+1.36220664e-01f,-2.03171983e-01f,
-2.74627376e-02f,+1.97994933e-01f,-1.11218601e-01f,+1.08645603e-01f,+3.26830119e-01f,
-7.33236521e-02f,+1.09264694e-01f,+2.31039092e-01f,+6.38833866e-02f,+2.01474980e-01f,
+3.43835950e-01f,-2.02725660e-02f,+4.59355116e-02f,+1.96209431e-01f,-6.49908110e-02f,
-1.45945726e-02f,+2.21359223e-01f,-7.72076249e-02f,+5.22757284e-02f,+9.26418230e-02f,
-9.70156267e-02f,+4.87529906e-03f,+1.93673953e-01f,-8.34012479e-02f,-2.47319657e-02f,
+2.25393355e-01f,-2.10317168e-02f,+1.11594915e-01f,+1.07190184e-01f,+1.12809122e-01f,
+1.91528335e-01f,+1.51452675e-01f,+5.59393823e-01f,+2.03380093e-01f,+2.57437199e-01f,
+9.07713652e-01f,+4.66252357e-01f,+5.37916064e-01f,+9.00303602e-01f,+6.24010921e-01f,
+8.12458336e-01f,+4.22230303e-01f,+3.89227569e-01f,+6.19759619e-01f,+3.28471839e-01f,
+9.71687138e-02f,+9.34746414e-02f,-1.01685375e-02f,-3.33972126e-02f,+9.65379700e-02f,
-2.10693836e-01f,-2.70564884e-01f,+4.24723089e-01f,-3.94846827e-01f,+4.98426631e-02f,
+3.28242630e-01f,-1.30782634e-01f,+5.96960671e-02f,+5.71948051e-01f,-2.94910390e-02f,
-3.64736579e-02f,+3.28409553e-01f,+6.87300786e-02f,+2.48182770e-02f,+2.33571187e-01f,
-6.53282776e-02f,+7.27989227e-02f,+1.31502271e-01f,-1.05838776e-02f,-7.35233352e-02f,
+1.52146265e-01f,+5.26819937e-02f,-8.94550905e-02f,+7.69811347e-02f,-1.48849387e-03f,
-1.32586092e-01f,-8.85887071e-03f,+3.14172618e-02f,+1.32758468e-02f,+4.41571325e-02f,
+7.83133358e-02f,-5.92500530e-02f,+3.77609022e-02f,-9.89328697e-02f,-2.82635409e-02f,
+2.06472263e-01f,-1.50357276e-01f,+5.50604127e-02f,+1.40964910e-01f,-2.60376722e-01f,
+1.12904489e-01f,+1.80613175e-01f,-1.78177431e-01f,+1.21961795e-01f,+1.86411217e-01f,
-1.19755194e-01f,+7.04269633e-02f,+8.75500590e-02f,-2.22365841e-01f,-2.20998675e-02f,
+7.48308524e-02f,-1.46931425e-01f,-6.91148266e-02f,+1.97017625e-01f,-1.56676248e-02f,
+8.79558772e-02f,+1.84289604e-01f,+3.94429974e-02f,+1.03636481e-01f,+1.73406854e-01f,
+1.36524200e-01f,+1.50474876e-01f,+2.09943071e-01f,+1.04424015e-01f,+3.02970380e-01f,
+2.50889838e-01f,+4.06631202e-01f,+3.14024687e-01f,+3.11138660e-01f,+1.03558922e+00f,
+5.17744362e-01f,+6.03991210e-01f,+1.25134051e+00f,+5.55427969e-01f,+9.06322241e-01f,
+3.65244329e-01f,+5.87043166e-01f,+7.78811872e-01f,-1.81214772e-02f,+3.03007722e-01f,
+2.23616511e-01f,-3.90399955e-02f,-1.37686683e-02f,+1.04363695e-01f,-1.79766074e-01f,
-1.14698671e-01f,+3.98223519e-01f,-1.94643810e-01f,+2.59026717e-02f,+4.11076128e-01f,
-3.17444712e-01f,+4.77973707e-02f,+5.57390749e-01f,-1.92208886e-01f,-1.09428568e-02f,
+3.68054599e-01f,-7.58435130e-02f,+1.39817297e-02f,+1.81575328e-01f,-1.90492179e-02f,
+2.90390744e-07f,+4.94693080e-03f,+4.91660498e-02f,-5.63537888e-02f,+1.12772752e-02f,
+1.40400766e-03f,-1.30961508e-01f,-9.58562791e-02f,-2.39430126e-02f,-7.30993226e-02f,
+6.36219280e-03f,+6.66545257e-02f,-1.10242054e-01f,-8.76210704e-02f,+4.11118157e-02f,
-1.01793773e-01f,+1.02733113e-01f,-1.48662582e-01f,-1.54178351e-01f,+9.21241045e-02f,
-3.90493214e-01f,-1.15595408e-01f,-3.70631292e-02f,-4.82118398e-01f,+8.98260847e-02f,
+1.40440211e-01f,-3.82745951e-01f,-1.64977200e-02f,+1.64036706e-01f,-4.19981658e-01f,
-1.38574421e-01f,+6.42364845e-02f,-3.18354428e-01f,-1.14366047e-01f,+4.31781486e-02f,
-1.84519634e-01f,-8.53186846e-02f,+1.26205578e-01f,-1.60349116e-01f,-1.07977942e-01f,
+1.88861433e-02f,-5.48605323e-02f,+1.84781160e-02f,+1.55648872e-01f,+2.00724453e-01f,
+1.24664865e-01f,+1.87379941e-01f,+1.58483922e-01f,+3.28428954e-01f,+2.12644279e-01f,
+2.58978307e-01f,+5.51692784e-01f,+2.40561664e-01f,+7.50547528e-01f,+5.81551433e-01f,
+5.74425101e-01f,+1.30614781e+00f,+5.25783002e-01f,+7.10628986e-01f,+3.22885275e-01f,
+3.41145545e-01f,+6.28728271e-01f,-2.83058118e-02f,-4.96153273e-02f,+3.91762346e-01f,
-5.78447282e-02f,+1.13737872e-02f,+1.21128656e-01f,-2.73643136e-01f,-8.66152644e-02f,
+4.65406686e-01f,-4.06008244e-01f,+3.22782844e-02f,+4.56613213e-01f,-3.01851690e-01f,
+1.04586646e-01f,+5.42202413e-01f,-3.80465984e-02f,+1.98793724e-01f,+3.43657702e-01f,
-7.46872947e-02f,+8.63859206e-02f,+4.72316779e-02f,+2.53294036e-03f,+2.22635604e-02f,
+6.96211457e-02f,+8.28490779e-02f,-1.48852915e-01f,+6.49694866e-03f,+8.74631330e-02f,
-2.30402369e-02f,-1.47573724e-01f,+1.44919842e-01f,-6.30790591e-02f,-9.52435471e-03f,
+1.56398043e-01f,-1.22756258e-01f,-6.76154625e-03f,+1.09541140e-01f,-1.63020104e-01f,
-1.72320753e-01f,-9.03386343e-03f,-2.75635004e-01f,-2.78043807e-01f,-3.05330873e-01f,
-2.82079041e-01f,-2.16145247e-01f,-5.73335290e-01f,-6.75268173e-02f,+1.57259524e-01f,
-4.85830963e-01f,-6.43278360e-02f,+4.08501625e-01f,-3.32005858e-01f,-1.51800498e-01f,
+3.26422989e-01f,-3.31461012e-01f,-1.64351285e-01f,+8.82778093e-02f,-2.87402421e-01f,
-5.36258258e-02f,-6.70033880e-03f,-2.05893949e-01f,-1.41393453e-01f,+1.10393524e-01f,
-1.28549680e-01f,+9.25467815e-03f,+9.18083414e-02f,-1.38701007e-01f,+1.89950923e-03f,
+1.01745836e-01f,-1.51762918e-01f,+2.55890824e-02f,+1.42596245e-01f,-1.25057846e-01f,
+4.11280155e-01f,+2.35060647e-01f,+2.36125097e-01f,+5.51080167e-01f,+2.33598232e-01f,
+1.01725101e+00f,+2.23476961e-01f,+7.01688945e-01f,+4.02165174e-01f,+9.00811180e-02f,
+5.16437113e-01f,-1.34615928e-01f,+5.07986993e-02f,+3.22737247e-01f,-2.71768123e-03f,
-6.45187870e-02f,+1.30200848e-01f,-3.43790412e-01f,-4.32119295e-02f,+3.39708537e-01f,
-3.54511261e-01f,-7.58735314e-02f,+4.79104668e-01f,-1.68957457e-01f,+6.02917559e-02f,
+4.66370493e-01f,-1.13192983e-01f,-7.27562904e-02f,+1.61870301e-01f,+3.40326764e-02f,
-1.92942813e-01f,+1.27642617e-01f,+6.94749281e-02f,-2.53135711e-01f,+2.30242722e-02f,
+6.63500838e-03f,-2.38345921e-01f,-8.61608163e-02f,+1.31982893e-01f,-2.15861499e-01f,
-1.39244813e-02f,+1.79614455e-01f,-2.06266850e-01f,-1.07654795e-01f,+1.43832535e-01f,
-3.02472562e-01f,-1.09768577e-01f,+2.87979007e-01f,-2.18077630e-01f,-1.42854542e-01f,
+3.38861316e-01f,-3.45794886e-01f,-2.42915198e-01f,+1.24409184e-01f,-2.12321013e-01f,
-1.32667318e-01f,-2.54187226e-01f,-1.01305753e-01f,+6.65226579e-01f,-1.70649186e-01f,
-2.17177212e-01f,+6.30931497e-01f,+6.94916621e-02f,-3.31025004e-01f,+1.78182751e-01f,
-1.20597422e-01f,-3.67284089e-01f,+1.96073785e-01f,-1.81958154e-01f,-2.81268299e-01f,
+2.28966817e-01f,-2.17553556e-01f,-9.48715359e-02f,+1.31735995e-01f,-2.19810784e-01f,
-1.48543552e-01f,+8.43827650e-02f,-2.55598754e-01f,-2.16144979e-01f,-8.05547535e-02f,
-4.12685692e-01f,-1.27010256e-01f,+5.55691607e-02f,-3.68921697e-01f,+1.55438051e-01f,
-8.74952376e-02f,-2.82424182e-01f,+3.64829689e-01f,+1.15020424e-01f,+3.12752098e-01f,
+2.98217088e-01f,+4.47450966e-01f,+2.98831791e-01f,+1.21321760e-01f,+6.62298948e-02f,
-3.10635846e-02f,+2.47590259e-01f,-9.28472611e-04f,-4.65535112e-02f,-1.33181602e-01f,
+1.03520773e-01f,-2.20496252e-01f,-1.71964139e-01f,+2.76415497e-01f,-3.74860972e-01f,
-9.20401290e-02f,+3.40490013e-01f,-3.35778713e-01f,+1.36708021e-02f,+3.34257275e-01f,
-6.87247738e-02f,-2.97159821e-01f,+2.94442922e-01f,+2.47930288e-02f,-4.40035075e-01f,
+9.47127305e-03f,+1.07998595e-01f,-3.90656292e-01f,-1.00642458e-01f,+2.43954845e-02f,
-3.48400742e-01f,-6.97214454e-02f,+1.29861951e-01f,-2.40757570e-01f,-1.01383016e-01f,
+2.15880245e-01f,-2.08095372e-01f,-1.12483524e-01f,+2.06633449e-01f,-1.94334134e-01f,
-9.10449699e-02f,+4.73658115e-01f,-1.10299841e-01f,-7.64945671e-02f,+5.27462780e-01f,
-6.63242489e-02f,-2.69104630e-01f,+4.26670164e-01f,+2.66962685e-02f,+2.05961436e-01f,
+8.25205445e-02f,+3.75651687e-01f,+7.82244682e-01f,+2.00057030e-01f,-1.44212954e-02f,
+4.48852897e-01f,+2.81701654e-01f,-3.65470618e-01f,+2.21396163e-01f,+1.45492539e-01f,
-2.59009957e-01f,+2.55417585e-01f,+5.85553758e-02f,-9.57281291e-02f,+2.00411215e-01f,
-9.26382169e-02f,-9.71196741e-02f,+5.94616570e-02f,-1.99030101e-01f,-1.01694211e-01f,
+4.30408455e-02f,-3.11377466e-01f,-2.92935073e-01f,-2.03171790e-01f,-2.87749052e-01f,
-3.81640792e-01f,-3.26900929e-01f,-1.48575902e-01f,+9.06944051e-02f,-6.16297781e-01f,
-3.88823077e-02f,+2.07740709e-01f,-4.37269062e-01f,-9.18260589e-02f,+2.50241339e-01f,
+1.66904971e-01f,-3.34783107e-01f,+1.63772509e-01f,+9.69353244e-02f,-4.18923676e-01f,
-2.77463589e-02f,+3.15898359e-01f,-8.74880999e-02f,+2.30749473e-01f,-1.25131413e-01f,
-1.40544698e-01f,+7.28627741e-02f,+6.66304082e-02f,-1.68884173e-01f,-1.89610440e-02f,
+2.81474799e-01f,-2.34557912e-01f,-8.15006196e-02f,+2.02924579e-01f,+5.25610633e-02f,
-4.99880940e-01f,+6.24087416e-02f,+6.07796013e-02f,-5.31059027e-01f,-1.12007454e-01f,
+1.25664443e-01f,-3.32442582e-01f,-2.56854683e-01f,+1.48393244e-01f,-1.72020927e-01f,
-6.62683472e-02f,+1.78559974e-01f,-2.35992149e-01f,-5.57177961e-02f,+1.01097092e-01f,
-1.99266702e-01f,-1.79417238e-01f,+1.36244550e-01f,-1.32217959e-01f,-9.39329490e-02f,
+5.10716796e-01f,+6.63615316e-02f,-1.50436431e-01f,+6.26575351e-01f,+1.40710950e-01f,
+3.54125574e-02f,+3.44250470e-01f,+2.68989682e-01f,+5.09428382e-01f,+1.61914706e-01f,
+5.45100689e-01f,+6.85542703e-01f,+3.75174522e-01f,+6.21316768e-02f,+3.93004239e-01f,
+2.90066808e-01f,-1.47495136e-01f,+2.73137212e-01f,+2.97740221e-01f,-1.81143567e-01f,
+2.95471996e-01f,+2.44908243e-01f,+1.63433626e-02f,+3.17884266e-01f,+1.02226824e-01f,
-1.73663527e-01f,+9.41890627e-02f,-1.38093740e-01f,-3.45074266e-01f,-4.92586568e-02f,
-2.01065749e-01f,-4.74886596e-01f,-3.55748028e-01f,-3.05149376e-01f,-1.77332491e-01f,
-6.97206676e-01f,-7.57456645e-02f,+9.75562632e-03f,-9.95363712e-01f,+1.61778346e-01f,
+1.15585230e-01f,-7.06796229e-01f,-8.84111002e-02f,+1.71091363e-01f,-7.90804327e-02f,
-4.55205858e-01f,+2.29453087e-01f,-6.84999526e-02f,-2.22858682e-01f,+2.08811864e-01f,
+2.14892909e-01f,+6.39068782e-02f,+1.41857967e-01f,-2.33660549e-01f,+4.24826443e-02f,
-2.71163762e-01f,+1.78285167e-01f,-2.46277273e-01f,-2.38067701e-01f,+2.45376512e-01f,
-8.99350867e-02f,-1.97699606e-01f,+7.17574731e-02f,+3.11682411e-02f,-5.06043017e-01f,
+4.95006181e-02f,+3.84598374e-02f,-3.57267171e-01f,-3.98717195e-01f,+3.72943804e-02f,
-2.54660755e-01f,-2.57319421e-01f,+4.13667597e-02f,-2.45853871e-01f,-2.60372549e-01f,
+1.68990009e-02f,-1.83293298e-01f,-1.89925596e-01f,+4.12913486e-02f,-1.21593207e-01f,
-1.61549091e-01f,+1.18181840e-01f,+6.84092119e-02f,-2.51379132e-01f,+4.54192251e-01f,
+1.74332067e-01f,-3.61050725e-01f,+5.27929187e-01f,+1.43144354e-01f,+1.09332085e-01f,
+1.65746570e-01f,+3.39576602e-01f,+5.24110079e-01f,+2.21138433e-01f,+4.08792526e-01f,
+4.57101941e-01f,+1.91630647e-01f,+1.12350903e-01f,+2.98607737e-01f,+3.87032628e-01f,
-5.33378087e-02f,+2.06458449e-01f,+3.67734343e-01f,-9.86398458e-02f,+4.34432864e-01f,
+9.12337229e-02f,-1.25484586e-01f,+3.18980515e-01f,-2.33843680e-02f,-2.80555248e-01f,
-2.68675033e-02f,-1.16423979e-01f,-3.68292660e-01f,-1.98421404e-01f,-2.31238723e-01f,
-3.38297307e-01f,-3.07609409e-01f,-1.43557057e-01f,-3.78498495e-01f,-6.04376137e-01f,
-1.53985620e-01f,-8.41276720e-02f,-7.09276497e-01f,+1.83596179e-01f,+6.71706870e-02f,
-5.21375120e-01f,+2.71999445e-02f,+1.20281875e-01f,-5.26242070e-02f,-5.26178539e-01f,
+5.67784905e-01f,+6.73949495e-02f,-3.48101705e-01f,+1.81132928e-01f,-8.83587450e-02f,
-2.01595038e-01f,+1.55481935e-01f,-2.90829670e-02f,+1.41141573e-02f,-8.87236372e-02f,
+4.33850214e-02f,+1.52896121e-01f,+1.01626061e-01f,-1.04624860e-01f,+2.40988676e-02f,
-1.75909474e-01f,+2.51800656e-01f,-7.04052374e-02f,-2.20100597e-01f,-2.13153474e-02f,
-1.98215500e-01f,-1.56580016e-01f,-4.96307015e-01f,-8.60872194e-02f,-1.29258856e-01f,
-2.64098257e-01f,-3.03045958e-02f,-5.36681451e-02f,-3.08433473e-01f,-2.08865292e-02f,
-4.75977315e-03f,-2.85040855e-01f,-4.07920405e-03f,+1.93238202e-02f,-3.16844285e-01f,
-3.15541513e-02f,+1.10596687e-01f,-3.60600442e-01f,+3.29046547e-01f,+4.72156890e-02f,
-2.83783585e-01f,+4.23004657e-01f,-1.56439394e-02f,+2.14002371e-01f,+1.67204961e-01f,
+4.54358727e-01f,+4.21036541e-01f,+1.65089041e-01f,+3.32035780e-01f,+2.40646541e-01f,
+1.60654292e-01f,+5.87837212e-02f,+1.19631216e-01f,+3.79303366e-01f,-2.70352185e-01f,
+1.50435433e-01f,+1.72478244e-01f,-1.20492950e-01f,+2.74203926e-01f,-5.85374348e-02f,
-2.02031091e-01f,+1.93101808e-01f,-1.42566249e-01f,-2.84559309e-01f,-4.81612720e-02f,
-1.36821672e-01f,-3.39004517e-01f,-1.93980098e-01f,-1.36119932e-01f,-2.11380437e-01f,
-3.66924852e-01f,-1.01195224e-01f,-2.93286651e-01f,-2.77774930e-01f,+1.08574502e-01f,
-6.44942597e-02f,-2.14451835e-01f,+1.30133107e-01f,+2.55966097e-01f,-2.06192508e-01f,
+4.38826764e-03f,+4.69771683e-01f,-8.88539106e-03f,-1.94358900e-01f,+3.76675844e-01f,
-1.50614500e-01f,-1.61452845e-01f,+2.79515862e-01f,-4.30770554e-02f,-1.80808783e-01f,
+6.73697442e-02f,+1.58013433e-01f,+1.11157276e-01f,+4.51280922e-02f,-1.86324713e-03f,
+3.72222483e-01f,+1.70920789e-02f,+9.92343798e-02f,+1.39453679e-01f,+1.58569649e-01f,
+3.23556781e-01f,-2.20028058e-01f,+5.75158261e-02f,+1.02759860e-01f,-2.30367288e-01f,
-3.01982425e-02f,-4.22066122e-01f,-1.82406530e-01f,-1.39806628e-01f,-4.00029331e-01f,
-1.49739355e-01f,-1.80767983e-01f,-3.40479523e-01f,-1.00473635e-01f,-1.57124251e-01f,
-2.46437669e-01f,-1.02849007e-02f,+8.19398090e-02f,-2.76342273e-01f,+1.50617845e-02f,
+8.13250989e-02f,-3.68087590e-01f,+3.15549612e-01f,+3.97313721e-02f,-1.95349649e-01f,
+3.26368988e-01f,+1.26691654e-01f,+2.13108897e-01f,+1.57708555e-01f,+2.53898859e-01f,
+3.39982420e-01f,+7.91119784e-02f,+1.92979634e-01f,+2.03328788e-01f,+2.30699673e-01f,
-1.73442718e-02f,+7.68065006e-02f,+2.32912064e-01f,-2.08054766e-01f,+9.06778350e-02f,
+1.55401647e-01f,-2.22203672e-01f,+1.59598812e-01f,-8.47799703e-02f,-1.06752247e-01f,
+1.28371352e-02f,-1.03019260e-01f,-1.41845897e-01f,-1.83418304e-01f,-9.69645008e-02f,
-2.28788778e-01f,-2.75143623e-01f,-1.30975008e-01f,-1.15187116e-01f,-1.60951212e-01f,
+2.19546650e-02f,-7.73965418e-02f,-1.15670830e-01f,+1.68966781e-02f,+1.28984094e-01f,
-1.41084371e-02f,+1.48562044e-01f,+5.04166067e-01f,+9.56408158e-02f,+4.81346175e-02f,
+9.69449997e-01f,-2.03473836e-01f,-4.51773435e-01f,+5.32512665e-01f,-2.44126357e-02f,
-1.55971825e-01f,+2.15767100e-01f,-2.32148003e-02f,+1.23806000e-02f,+3.95510271e-02f,
-1.02986619e-02f,-1.13453366e-01f,-2.35043585e-01f,+3.03653777e-01f,+2.69094884e-01f,
+6.00831956e-02f,+5.56638837e-02f,+2.40443587e-01f,+2.20125765e-01f,+5.93496501e-01f,
-3.06892358e-02f,+3.54183048e-01f,+1.23330906e-01f,-2.69759327e-01f,+1.93412691e-01f,
-1.23337746e-01f,-9.67584029e-02f,-9.89632588e-03f,-1.86441407e-01f,-1.50270015e-01f,
-9.67774168e-02f,-3.98303002e-01f,-2.91922465e-02f,-1.57790720e-01f,-3.99926126e-01f,
-1.28966924e-02f,-6.68995455e-02f,-3.54540139e-01f,-1.05785973e-01f,+1.67379696e-02f,
-3.88597786e-01f,+1.65288195e-01f,-2.22019777e-02f,-3.54574472e-01f,+5.18092737e-02f,
-1.19144835e-01f,-7.36170560e-02f,-3.99957485e-02f,-2.59988997e-02f,+1.59994438e-01f,
+2.15536058e-02f,-5.20531973e-03f,-3.13731171e-02f,+9.53620672e-02f,-1.67126775e-01f,
+1.01053566e-01f,+1.09285988e-01f,-4.53580357e-02f,+1.41471699e-01f,-2.09906325e-03f,
+9.44334045e-02f,-1.02957794e-02f,+9.22234282e-02f,+4.98082787e-02f,-1.06621943e-01f,
+4.16636690e-02f,+1.29896969e-01f,-1.29450679e-01f,-1.03163235e-02f,+5.97082898e-02f,
-6.89275786e-02f,+6.91673085e-02f,+2.13562191e-01f,-7.50484765e-02f,-7.57139027e-02f,
+2.08144739e-01f,-4.74849008e-02f,+9.34054404e-02f,+3.20104688e-01f,+1.91735923e-01f,
+8.11373591e-02f,+6.56255484e-01f,+2.34036967e-01f,-1.45279258e-01f,+1.04841840e+00f,
+5.15098646e-02f,-3.82985115e-01f,+6.16736472e-01f,+3.69663239e-02f,-2.43080467e-01f,
+3.19979966e-01f,-2.27180962e-02f,+4.79628555e-02f,+1.46611687e-03f,+7.18512908e-02f,
-1.22602269e-01f,-1.07565299e-01f,+2.17765436e-01f,+1.51380330e-01f,-5.96387908e-02f,
+3.94254416e-01f,+4.17304426e-01f,+1.98288500e-01f,+7.48867333e-01f,+1.80939157e-02f,
+4.65592325e-01f,+2.36426920e-01f,-2.95277387e-02f,+4.53583330e-01f,+8.40674490e-02f,
+6.72206804e-02f,+2.04982460e-01f,-7.85094872e-02f,-2.53087422e-03f,+1.93546936e-01f,
-1.95902854e-01f,-3.59750129e-02f,+4.80906293e-02f,-3.27220738e-01f,+4.85739112e-03f,
-8.35261941e-02f,-3.31182152e-01f,-9.69345346e-02f,+2.99679153e-02f,-5.12428045e-01f,
-1.42329246e-01f,-3.75102907e-02f,-5.30380070e-01f,-1.49627477e-01f,-3.92916836e-02f,
-2.93576241e-01f,-1.82019264e-01f,-1.39729366e-01f,-3.08359992e-02f,-8.37709606e-02f,
-1.77740991e-01f,-2.32231691e-02f,+1.62452944e-02f,-3.87260579e-02f,-8.60476121e-03f,
+1.74793735e-01f,+1.53272301e-01f,+2.96606496e-02f,+1.37854397e-01f,+2.41835564e-01f,
+1.97669193e-02f,+1.92827359e-01f,+3.74424160e-01f,+9.06793103e-02f,+1.35601640e-01f,
+2.44769782e-01f,+1.23252481e-01f,+2.03551337e-01f,+2.16755852e-01f,+7.69150406e-02f,
+8.14120471e-02f,+2.93671399e-01f,+1.08065993e-01f,+3.62975858e-02f,+4.47915345e-01f,
+2.21802071e-01f,+2.38849342e-01f,+6.06207252e-01f,+8.71232152e-02f,+2.24755369e-02f,
+8.41821253e-01f,+8.05674195e-02f,+3.42739075e-02f,+1.11527860e+00f,+1.82020292e-01f,
+1.63540259e-01f,+7.55883455e-02f,+5.03926039e-01f,+1.30752340e-01f,-1.12597495e-01f,
+2.79195994e-01f,-9.91638675e-02f,+1.44494725e-02f,+1.36358261e-01f,+1.43471975e-02f,
+2.59911418e-02f,+4.60176282e-02f,+2.44415522e-01f,-3.21580470e-02f,+5.40173054e-01f,
+2.90321082e-01f,+2.44352996e-01f,+7.93812513e-01f,+2.58892983e-01f,+4.97844130e-01f,
+4.59850997e-01f,+3.50648522e-01f,+3.71588051e-01f,+1.78609982e-01f,+2.71988481e-01f,
+3.84197444e-01f,+1.72508910e-01f,+1.99395880e-01f,+4.36792284e-01f,+1.17883325e-01f,
+4.06337827e-02f,+3.23790461e-01f,-1.07598230e-01f,-9.30793807e-02f,+3.11304510e-01f,
-1.45241991e-01f,-6.00062963e-03f,+3.41067165e-01f,-3.68855685e-01f,-8.61909091e-02f,
+2.80348688e-01f,-5.08653581e-01f,-1.55480489e-01f,+1.78513333e-01f,-5.17980158e-01f,
-1.71268150e-01f,+6.45259768e-02f,-1.95491001e-01f,-8.52358416e-02f,+1.64803952e-01f,
-4.56011742e-02f,+5.54170422e-02f,+1.77205071e-01f,-6.71538636e-02f,+1.54088631e-01f,
+3.47801685e-01f,-4.17240337e-02f,+3.10332328e-01f,+4.66894954e-01f,+9.35821012e-02f,
+2.12797701e-01f,+4.65720713e-01f,+1.18552409e-01f,+1.79866701e-01f,+4.49975997e-01f,
+2.01055318e-01f,+1.90619126e-01f,+5.13765275e-01f,+1.61622062e-01f,+2.69213647e-01f,
+5.00420988e-01f,+6.16632663e-02f,+1.39444456e-01f,+7.55195379e-01f,+1.56552628e-01f,
+1.58478051e-01f,+7.35705376e-01f,+1.87006891e-01f,+1.33639704e-02f,+9.05647397e-01f,
+1.84756499e-02f,-2.81757653e-01f,+9.77183640e-01f,+2.89332002e-01f,+3.27608809e-02f,
+2.65958667e-01f,+2.62703329e-01f,+8.80076587e-02f,-9.95754898e-02f,+3.03715259e-01f,
+7.98547640e-02f,-2.30814144e-02f,+7.41520599e-02f,+8.57667103e-02f,+1.64598763e-01f,
+1.50973853e-02f,+1.64777398e-01f,+1.09679580e-01f,+2.65729338e-01f,+3.59219223e-01f,
+5.53604722e-01f,+6.05238199e-01f,+2.01989308e-01f,+7.82723367e-01f,+4.37376440e-01f,
+3.02162558e-01f,+6.66816354e-01f,+2.66150713e-01f,+3.46393555e-01f,+5.77140868e-01f,
+1.91106647e-01f,+1.92878827e-01f,+6.16549432e-01f,+1.91647053e-01f,+8.86198804e-02f,
+5.41683972e-01f,+1.49919957e-01f,+9.32559669e-02f,+5.08232594e-01f,+1.44030914e-01f,
-8.93883407e-02f,+2.68652409e-01f,-9.17684957e-02f,-6.85239583e-02f,+2.65739650e-01f,
-2.68823057e-01f,+1.44325895e-05f,+2.03965709e-01f,-3.79945874e-01f,-1.10583352e-02f,
+1.52691334e-01f,-1.77785590e-01f,+1.28045427e-02f,+9.97828767e-02f,-1.78276822e-01f,
+1.19172871e-01f,+2.86493778e-01f,-1.37285680e-01f,+2.19184160e-01f,+1.88001439e-01f,
-1.14284806e-01f,+1.66255474e-01f,+3.77545863e-01f,+1.03243351e-01f,+2.62456208e-01f,
+4.79645044e-01f,+5.28024510e-02f,+1.90315142e-01f,+3.74791026e-01f,+1.97096214e-01f,
+1.59883589e-01f,+4.81652737e-01f,+1.78371608e-01f,+1.51997447e-01f,+6.78399205e-01f,
+1.99729502e-01f,+2.44743042e-02f,+6.51362538e-01f,+2.18474537e-01f,+3.20637748e-02f,
+7.53055692e-01f,+9.07248780e-02f,-1.24794468e-01f,+7.58774161e-01f,+3.80416140e-02f,
-1.12863488e-01f,+6.02435231e-01f,+2.72394180e-01f,-5.71790747e-02f,+3.44213933e-01f,
+9.56742018e-02f,+1.36087671e-01f,+1.49501860e-01f,-8.30804259e-02f,-1.31968960e-01f,
+1.77344710e-01f,+4.58160378e-02f,+1.64765209e-01f,+1.38206538e-02f,+3.44169796e-01f,
+1.39011800e-01f,+3.15206826e-01f,+2.17663586e-01f,+1.28092706e-01f,+8.57665479e-01f,
+3.02544922e-01f,+1.90212652e-01f,+8.80838275e-01f,+3.68046552e-01f,+1.24582015e-01f,
+6.20028019e-01f,+3.08805257e-01f,+5.41037396e-02f,+5.93810916e-01f,+2.69950211e-01f,
+1.44202992e-01f,+5.16801953e-01f,+2.04487875e-01f,+9.54890177e-02f,+3.72886181e-01f,
+9.10610184e-02f,-1.44500025e-02f,+2.77298182e-01f,+1.14867695e-01f,-1.09775513e-01f,
+2.38380238e-01f,-8.39568153e-02f,+1.12812389e-02f,+1.38587669e-01f,-2.02520281e-01f,
+8.15475658e-02f,+1.11253873e-01f,-2.14454994e-01f,+1.03328861e-01f,+1.80544615e-01f,
-2.74552584e-01f,+1.07816234e-01f,+1.09925508e-01f,-1.85451135e-01f,+5.42860664e-02f,
+1.64003283e-01f,-1.36879236e-01f,+5.75602464e-02f,+1.21954642e-01f,-6.81330264e-02f,
+1.61867961e-01f,+1.92583531e-01f,-7.26549178e-02f,+2.40184456e-01f,+3.68397295e-01f,
-5.91436327e-02f,+1.00857243e-01f,+3.55175465e-01f,+1.97310150e-02f,+1.57651752e-01f,
+3.51417542e-01f,+1.66150868e-01f,+7.75524080e-02f,+4.42734748e-01f,-1.17450561e-02f,
+9.23509747e-02f,+6.38915002e-01f,-2.41810884e-02f,+1.35734081e-01f,+5.05946100e-01f,
-9.28284824e-02f,-1.23164319e-01f,+3.33067566e-01f,-1.65926620e-01f,-2.90973395e-01f,
+4.21694636e-01f,-2.46247761e-02f,-1.01799130e-01f,+3.96613955e-01f,-2.48031870e-01f,
-2.92427428e-02f,+4.99922447e-02f,-1.49231432e-02f,-1.09773032e-01f,+1.61997929e-01f,
+9.01841596e-02f,+2.07828864e-01f,+1.20541863e-01f,+1.15091041e-01f,+1.71778947e-01f,
+1.87941253e-01f,+3.41219187e-01f,+2.09198415e-01f,+7.17830598e-01f,+4.45405334e-01f,
+3.52927655e-01f,+6.00896537e-01f,+3.28260690e-01f,-1.47860780e-01f,+4.79406446e-01f,
+1.61956772e-01f,-1.90571249e-01f,+4.17234808e-01f,+1.61344305e-01f,-3.98407690e-02f,
+2.87207037e-01f,+5.00111915e-02f,-1.27825290e-01f,+1.76876664e-01f,-6.41500205e-02f,
-8.88577551e-02f,+2.33505860e-01f,-9.99495983e-02f,-1.79947577e-02f,+1.62894204e-01f,
-3.39490958e-02f,-5.34147248e-02f,+1.17869079e-01f,-8.36074259e-03f,+5.16465679e-02f,
+1.07969142e-01f,-1.02050610e-01f,+1.91393085e-02f,+1.42549455e-01f,-8.53254199e-02f,
-3.30962986e-02f,+8.89777467e-02f,-7.48330802e-02f,-1.16094574e-01f,+2.41775867e-02f,
-8.10421705e-02f,+2.49245968e-02f,-2.44480465e-02f,-5.56691587e-02f,+6.09990880e-02f,
+2.76083797e-02f,+3.49317561e-03f,+7.01962784e-02f,+1.58392042e-01f,-1.69235878e-02f,
+2.47721300e-01f,+3.13936710e-01f,-6.36074468e-02f,+2.42881134e-01f,+3.22986752e-01f,
-6.52911738e-02f,+2.25071907e-01f,+4.15790528e-01f,-3.64614129e-01f,-3.42917405e-02f,
+4.07544464e-01f,-3.37646484e-01f,-8.01056474e-02f,+2.43598565e-01f,-2.29981825e-01f,
-1.08179644e-01f,+1.31617635e-01f,-2.06348583e-01f,-2.55102366e-01f,+1.39012739e-01f,
-5.31075150e-02f,-3.12735625e-02f,-1.36867523e-01f,+5.67966737e-02f,-7.94121251e-02f,
+7.50113726e-02f,-2.81384345e-02f,-4.89379652e-02f,-6.52557313e-02f,-5.75346090e-02f,
+2.09795088e-02f,-5.15559278e-02f,-2.75454521e-02f,+2.34646916e-01f,+2.48822629e-01f,
+4.89977412e-02f,+5.88949680e-01f,+5.46663463e-01f,+3.43688935e-01f,+3.41097355e-01f,
+2.25973919e-01f,+4.51669931e-01f,-3.47650163e-02f,+4.94777486e-02f,+2.33769491e-01f,
-1.58567786e-01f,+1.98620513e-01f,+7.16780545e-03f,-1.40220851e-01f,+1.11842670e-01f,
+1.49072104e-04f,+3.73663083e-02f,+9.05328095e-02f,-1.10504530e-01f,+1.36330724e-03f,
+2.05882251e-01f,-1.31899536e-01f,+1.02770925e-02f,+1.90923139e-01f,-1.09083362e-01f,
+1.42672226e-01f,+3.18453789e-01f,+1.00604780e-02f,+1.04459755e-01f,+4.08141941e-01f,
+1.96496293e-01f,+9.80971381e-02f,+2.96761692e-01f,+6.52470514e-02f,+2.89621484e-02f,
+2.15298653e-01f,+8.43068734e-02f,-9.08231661e-02f,+1.72318637e-01f,-1.24078184e-01f,
-1.06721081e-01f,+3.79778221e-02f,+1.64773504e-04f,-4.83484901e-02f,+3.31963482e-03f,
+5.67704029e-02f,+2.70035207e-01f,+2.62780190e-02f,+1.10472273e-02f,+2.21992657e-01f,
+1.68324158e-01f,-7.52492175e-02f,+3.52472961e-01f,+1.09312586e-01f,-1.47318259e-01f,
+2.08747417e-01f,+7.48985410e-02f,-3.25732708e-01f,-1.66763395e-01f,+9.54528004e-02f,
-2.17279404e-01f,+5.08990213e-02f,+4.02723216e-02f,-1.99906364e-01f,-1.49759531e-01f,
-2.23528475e-01f,-5.26645919e-03f,+1.85056310e-03f,-4.53326479e-02f,-2.32279360e-01f,
-1.39938995e-01f,-2.48656005e-01f,+2.60474831e-01f,+4.32247892e-02f,+4.44323346e-02f,
-1.48745999e-02f,+4.70104292e-02f,+6.67157397e-02f,-5.81030510e-02f,+8.20021704e-02f,
+2.07906589e-02f,-4.91983891e-02f,+2.28566185e-01f,+1.15027860e-01f,+3.48095447e-02f,
+5.09858787e-01f,+1.38831705e-01f,+1.15452729e-01f,+2.66949594e-01f,-1.88160822e-01f,
+4.30785894e-01f,+1.12200633e-01f,-2.65944570e-01f,+6.28253341e-01f,+5.38625419e-02f,
-8.28667730e-02f,+2.99581200e-01f,+3.14656585e-01f,+4.63469373e-03f,+1.97537601e-01f,
+2.21097708e-01f,+1.89327449e-01f,+2.23995522e-01f,+2.25782201e-01f,+2.69906491e-01f,
+1.69375390e-01f,+3.07712525e-01f,+2.60625482e-01f,+2.50215322e-01f,+3.44465792e-01f,
+3.28406662e-01f,+2.70380706e-01f,+2.32518628e-01f,+4.10836875e-01f,+1.44660562e-01f,
+2.72195905e-01f,+4.29517925e-01f,+1.43429279e-01f,+1.74546018e-01f,+4.47454304e-01f,
-1.45830233e-02f,+1.59641251e-01f,+3.67921859e-01f,+2.95391716e-02f,+2.80154109e-01f,
+3.36752087e-01f,+8.10112134e-02f,+1.82511151e-01f,+2.46381909e-01f,+2.44119778e-01f,
+2.77567565e-01f,+2.74228990e-01f,+1.60645261e-01f,+3.33519250e-01f,-9.61069316e-02f,
+2.99831539e-01f,+3.42030913e-01f,-2.13698268e-01f,+4.26864564e-01f,+3.34531426e-01f,
-1.91501066e-01f,+2.56255716e-01f,+9.31364968e-02f,-1.93124607e-01f,+2.15206847e-01f,
+2.40834072e-01f,-1.60784021e-01f,+2.61892289e-01f,-2.78501779e-01f,+1.85090899e-01f,
-4.01651524e-02f,-2.33696267e-01f,+2.12007076e-01f,-2.01533526e-01f,-2.16234908e-01f,
+2.20310301e-01f,-5.73491603e-02f,+5.83596900e-02f,+7.18493015e-03f,+3.46292928e-02f,
-2.23439112e-02f,+5.45020029e-02f,-2.82445475e-02f,-2.85880119e-02f,+3.25777084e-02f,
-8.03180784e-02f,+2.36063987e-01f,+6.91225231e-02f,-2.06277236e-01f,+1.59208819e-01f,
-1.10393636e-01f,-7.40701929e-02f,+2.25970328e-01f,-1.47324920e-01f,+2.45860681e-01f,
+2.71135628e-01f,-4.88967985e-01f,+5.98699689e-01f,+3.65667105e-01f,-1.90941080e-01f,
+4.33415055e-01f,+3.13829511e-01f,-1.64433122e-01f,+6.07164741e-01f,+1.98391125e-01f,
-1.59314081e-01f,+7.84988999e-01f,+1.60465509e-01f,-3.81337963e-02f,+7.93336391e-01f,
+2.18003780e-01f,+3.71146873e-02f,+7.16028035e-01f,+1.29397392e-01f,+2.17147488e-02f,
+8.66521060e-01f,+1.08886115e-01f,+5.15645891e-02f,+8.40294778e-01f,+1.09424599e-01f,
+1.04605593e-01f,+8.48836660e-01f,+8.53171870e-02f,+8.66591111e-02f,+7.97277212e-01f,
+9.25981551e-02f,+1.04923248e-01f,+5.64324677e-01f,+1.97135836e-01f,+2.73238778e-01f,
+7.29340732e-01f,+2.12838322e-01f,+2.15427354e-01f,+8.37509871e-01f,+1.77624539e-01f,
+1.54784992e-01f,+8.93344343e-01f,+9.92833599e-02f,-1.29009932e-01f,+9.12884653e-01f,
+1.55658692e-01f,-4.39597577e-01f,+7.47945845e-01f,+8.36299881e-02f,-2.76711881e-01f,
+5.91092169e-01f,+1.34923216e-02f,-9.56660733e-02f,+3.68963152e-01f,+1.46264017e-01f,
-2.33975306e-01f,+3.75994682e-01f,-1.14012621e-01f,-1.49169594e-01f,+3.44948500e-01f,
-1.44355476e-01f,-5.78573607e-02f,-2.11539853e-04f,-1.86183572e-01f,+1.27999902e-01f,
-2.03011692e-01f,+1.27611011e-02f,-8.04989636e-02f,+4.28972468e-02f,-5.69948927e-02f,
+5.66151068e-02f,+7.57762417e-02f,+3.84609178e-02f,-8.05920213e-02f,-3.98421995e-02f,
-2.25700513e-02f,-6.36396930e-02f,-2.63559222e-02f,+2.25783393e-01f,-6.65025190e-02f,
-1.10327676e-01f,+2.97279596e-01f,-2.54951596e-01f,+2.74662357e-02f,+1.31404297e-02f,
-3.31852466e-01f,+2.17175782e-01f,-3.27365100e-02f,-3.25432062e-01f,+6.52785778e-01f,
-1.76112521e-02f,-4.34074104e-01f,+8.50083768e-01f,-5.91090657e-02f,-2.75744051e-01f,
+8.61907423e-01f,-1.92352175e-03f,-2.65128225e-01f,+9.93519843e-01f,-1.18961446e-01f,
+2.64053419e-02f,+8.29503655e-01f,+2.06003468e-02f,+3.05314623e-02f,+8.53291452e-01f,
+8.14460218e-02f,-2.02390812e-02f,+7.51857996e-01f,+1.17502511e-01f,+3.86508219e-02f,
+9.08539474e-01f,-2.13322253e-03f,-8.17720369e-02f,+8.85367870e-01f,+6.77147822e-04f,
-1.60470291e-03f,+9.94445920e-01f,-4.75156978e-02f,+1.56242445e-01f,+9.59518313e-01f,
+7.35032558e-02f,+2.05131814e-01f,+8.16014886e-01f,-8.80657360e-02f,+1.53581560e-01f,
+6.52536094e-01f,+1.13102540e-01f,+1.46307766e-01f,+6.23969853e-01f,+2.29700044e-01f,
-4.92263846e-02f,+5.25468886e-01f,-7.18265697e-02f,+6.04886003e-02f,+5.35974622e-01f,
-3.00675750e-01f,+4.89380918e-02f,+3.79013211e-01f,+1.67702258e-01f,+7.99878016e-02f,
+2.24475577e-01f,-1.99540168e-01f,-8.29313416e-03f,+1.01568118e-01f,-7.74055719e-04f,
-1.00008301e-01f,+5.46218567e-02f,-3.24635431e-02f,-6.27678558e-02f,-4.99479026e-02f,
-4.89445403e-02f,-9.85951722e-03f,-3.77504975e-02f,+4.45839763e-03f,+3.77307907e-02f,
+6.91592470e-02f,-1.32437721e-02f,+7.22108707e-02f,-1.33354515e-02f,+1.79068521e-02f,
+4.63066325e-02f,-3.42578441e-02f,-8.10892060e-02f,-5.44991270e-02f,+4.72105965e-02f,
+6.06879592e-03f,-9.89851728e-02f,+1.94142446e-01f,-7.13738501e-02f,-7.11054578e-02f,
+3.70049030e-01f,-4.92842868e-02f,+5.22446409e-02f,+5.19756615e-01f,+5.41736037e-02f,
-5.65408915e-02f,+4.24691200e-01f,-2.15387836e-01f,-7.14281723e-02f,+5.44369996e-01f,
-1.95084482e-01f,+3.66669446e-02f,+5.79199314e-01f,-1.32045463e-01f,-1.93384722e-01f,
+7.41545618e-01f,-3.01401876e-02f,-3.61808181e-01f,+7.70620704e-01f,+2.23078188e-02f,
-2.13963687e-01f,+6.89880133e-01f,-1.92009598e-01f,-1.85860768e-01f,+1.05254042e+00f,
-2.12163050e-02f,-1.88866153e-01f,+9.47742283e-01f,-1.48244560e-01f,-9.67878848e-02f,
+1.02824128e+00f,-1.30180597e-01f,-1.76695377e-01f,+8.32917750e-01f,-3.28213215e-01f,
-2.07923263e-01f,+8.89455497e-01f,-2.54592985e-01f,-1.04029618e-01f,+6.05955899e-01f,
-1.75006077e-01f,-1.11401975e-01f,+4.65409994e-01f,+3.39136757e-02f,-5.33285029e-02f,
+5.50873503e-02f,-1.55246422e-01f,-1.04015678e-01f,-1.58139654e-02f,-8.70408788e-02f,
-2.58042533e-02f,+1.13485642e-01f,+3.09289247e-03f,-8.59421194e-02f,+1.95470437e-01f,
-6.30661473e-02f,-5.15375696e-02f,+7.76828006e-02f,-1.62710100e-02f,+3.84188369e-02f,
-3.84179279e-02f,-3.11047025e-02f,+8.16318393e-03f,+6.02788106e-02f,-2.96457075e-02f,
+4.14138809e-02f,+1.75295100e-02f,}; 
k2c_tensor dense_kernel = {&dense_kernel_array[0],2,2352,{784,  3,  1,  1,  1}}; 
float dense_bias_array[3] = {
+1.15700550e-01f,+4.66566235e-02f,+4.88394797e-01f,}; 
k2c_tensor dense_bias = {&dense_bias_array[0],1,3,{3,1,1,1,1}}; 
float dense_fwork[3136] = {0}; 

 
float dense_1_kernel_array[30] = {
-9.56450760e-01f,-1.23289406e+00f,-5.13762116e-01f,-2.18945578e-01f,+1.20052600e+00f,
+3.80290121e-01f,+6.09670222e-01f,-1.01203740e+00f,+1.55226663e-01f,+2.41643533e-01f,
+6.88000739e-01f,-1.26862600e-01f,+5.36034107e-01f,-4.01113043e-03f,-1.36075830e+00f,
-5.39494455e-02f,+1.45781204e-01f,-1.37749755e+00f,-1.31697236e-02f,-1.23423421e+00f,
-1.08195937e+00f,+4.80710953e-01f,-3.36523086e-01f,+3.64387661e-01f,-4.69368875e-01f,
-2.63330966e-01f,-1.34785783e+00f,+9.58031356e-01f,-1.42014204e-02f,+4.55973625e-01f,
}; 
k2c_tensor dense_1_kernel = {&dense_1_kernel_array[0],2,30,{ 3,10, 1, 1, 1}}; 
float dense_1_bias_array[10] = {
+1.37056077e+00f,+7.50425279e-01f,-6.96844816e-01f,-1.87141144e+00f,+5.36450148e-01f,
-5.29609844e-02f,+1.47482917e-01f,+7.96727061e-01f,-4.97295231e-01f,+6.07859135e-01f,
}; 
k2c_tensor dense_1_bias = {&dense_1_bias_array[0],1,10,{10, 1, 1, 1, 1}}; 
float dense_1_fwork[33] = {0}; 

 
k2c_flatten(&flatten_output,flatten_input_input); 
k2c_dense(&dense_output,&flatten_output,&dense_kernel, 
	&dense_bias,k2c_relu,dense_fwork); 
k2c_dense(dense_1_output,&dense_output,&dense_1_kernel, 
	&dense_1_bias,k2c_softmax,dense_1_fwork); 

 } 

void MNIST_NeuralNet_initialize() { 

} 

void MNIST_NeuralNet_terminate() { 

} 

